digraph Tree {
node [shape=box, style="filled, rounded", color="black", fontname=helvetica] ;
edge [fontname=helvetica] ;
0 [label="Nearest <= 168.5\ngini = 0.6457\nsamples = 876\nvalue = [414, 14, 10, 265, 173]\nclass = 77", fillcolor="#e581393e"] ;
1 [label="Time <= 1100.0\ngini = 0.5005\nsamples = 448\nvalue = [0, 0, 10, 265, 173]\nclass = 176", fillcolor="#3c39e555"] ;
0 -> 1 [labeldistance=2.5, labelangle=45, headlabel="True"] ;
2 [label="Time <= 772.5\ngini = 0.074\nsamples = 260\nvalue = [0, 0, 10, 250, 0]\nclass = 176", fillcolor="#3c39e5f5"] ;
1 -> 2 ;
3 [label="gini = 0.0\nsamples = 4\nvalue = [0, 0, 4, 0, 0]\nclass = 175", fillcolor="#39e5c5ff"] ;
2 -> 3 ;
4 [label="Time <= 822.5\ngini = 0.0458\nsamples = 256\nvalue = [0, 0, 6, 250, 0]\nclass = 176", fillcolor="#3c39e5f9"] ;
2 -> 4 ;
5 [label="DayOfWeek <= 2.5\ngini = 0.2778\nsamples = 24\nvalue = [0, 0, 4, 20, 0]\nclass = 176", fillcolor="#3c39e5cc"] ;
4 -> 5 ;
6 [label="DayOfWeek <= 1.5\ngini = 0.4628\nsamples = 11\nvalue = [0, 0, 4, 7, 0]\nclass = 176", fillcolor="#3c39e56d"] ;
5 -> 6 ;
7 [label="gini = 0.0\nsamples = 7\nvalue = [0, 0, 0, 7, 0]\nclass = 176", fillcolor="#3c39e5ff"] ;
6 -> 7 ;
8 [label="gini = 0.0\nsamples = 4\nvalue = [0, 0, 4, 0, 0]\nclass = 175", fillcolor="#39e5c5ff"] ;
6 -> 8 ;
9 [label="gini = 0.0\nsamples = 13\nvalue = [0, 0, 0, 13, 0]\nclass = 176", fillcolor="#3c39e5ff"] ;
5 -> 9 ;
10 [label="Time <= 872.5\ngini = 0.0171\nsamples = 232\nvalue = [0, 0, 2, 230, 0]\nclass = 176", fillcolor="#3c39e5fd"] ;
4 -> 10 ;
11 [label="DayOfWeek <= 2.5\ngini = 0.0713\nsamples = 54\nvalue = [0, 0, 2, 52, 0]\nclass = 176", fillcolor="#3c39e5f5"] ;
10 -> 11 ;
12 [label="DayOfWeek <= 1.5\ngini = 0.2076\nsamples = 17\nvalue = [0, 0, 2, 15, 0]\nclass = 176", fillcolor="#3c39e5dd"] ;
11 -> 12 ;
13 [label="gini = 0.0\nsamples = 15\nvalue = [0, 0, 0, 15, 0]\nclass = 176", fillcolor="#3c39e5ff"] ;
12 -> 13 ;
14 [label="gini = 0.0\nsamples = 2\nvalue = [0, 0, 2, 0, 0]\nclass = 175", fillcolor="#39e5c5ff"] ;
12 -> 14 ;
15 [label="gini = 0.0\nsamples = 37\nvalue = [0, 0, 0, 37, 0]\nclass = 176", fillcolor="#3c39e5ff"] ;
11 -> 15 ;
16 [label="gini = 0.0\nsamples = 178\nvalue = [0, 0, 0, 178, 0]\nclass = 176", fillcolor="#3c39e5ff"] ;
10 -> 16 ;
17 [label="Nearest <= 119.5\ngini = 0.1468\nsamples = 188\nvalue = [0, 0, 0, 15, 173]\nclass = 206", fillcolor="#e539c0e9"] ;
1 -> 17 ;
18 [label="gini = 0.0\nsamples = 173\nvalue = [0, 0, 0, 0, 173]\nclass = 206", fillcolor="#e539c0ff"] ;
17 -> 18 ;
19 [label="gini = 0.0\nsamples = 15\nvalue = [0, 0, 0, 15, 0]\nclass = 176", fillcolor="#3c39e5ff"] ;
17 -> 19 ;
20 [label="Time <= 1400.0\ngini = 0.0633\nsamples = 428\nvalue = [414, 14, 0, 0, 0]\nclass = 77", fillcolor="#e58139f6"] ;
0 -> 20 [labeldistance=2.5, labelangle=-45, headlabel="False"] ;
21 [label="Time <= 1072.5\ngini = 0.4764\nsamples = 23\nvalue = [9, 14, 0, 0, 0]\nclass = 162", fillcolor="#7be5395b"] ;
20 -> 21 ;
22 [label="gini = 0.0\nsamples = 9\nvalue = [9, 0, 0, 0, 0]\nclass = 77", fillcolor="#e58139ff"] ;
21 -> 22 ;
23 [label="gini = 0.0\nsamples = 14\nvalue = [0, 14, 0, 0, 0]\nclass = 162", fillcolor="#7be539ff"] ;
21 -> 23 ;
24 [label="gini = 0.0\nsamples = 405\nvalue = [405, 0, 0, 0, 0]\nclass = 77", fillcolor="#e58139ff"] ;
20 -> 24 ;
}